{"weight": [[-0.09350242465734482, -0.04130803421139717, 0.01910993456840515, 0.06457977741956711, 0.08015452325344086, -0.20616675913333893, 0.13156694173812866, -0.434378445148468, -0.10169623047113419, -0.06280313432216644, 0.06854628771543503, -0.021010547876358032, -0.012482749298214912, 0.33743423223495483, 0.08090998977422714, 0.1065320298075676, -0.05574151128530502, 0.2726890742778778, 0.0348266139626503, -0.11274401098489761], [0.1396181881427765, -0.10130355507135391, -0.20561909675598145, 0.02520880475640297, -0.07917533814907074, -0.15998418629169464, 0.05414687097072601, 0.3190625309944153, -0.2794429063796997, -0.06837263703346252, 0.027396855875849724, -0.1216917634010315, -0.1057160422205925, -0.13861341774463654, 0.1759868711233139, -0.0920867845416069, 0.024233993142843246, -0.09578913450241089, 0.3014024496078491, 0.08924365043640137], [-0.08443550765514374, 0.06907393783330917, -0.15497639775276184, 0.11389555782079697, -0.08364880830049515, -0.1130843535065651, 0.093475341796875, -0.42431461811065674, 0.07846324145793915, -0.22611849009990692, 0.24254262447357178, 0.07246523350477219, 0.05693153291940689, -0.05402030423283577, -0.030029842630028725, -0.07170639932155609, 0.07044573128223419, -0.09538973867893219, 0.18483209609985352, 0.2343481332063675], [0.3893004059791565, 0.08496704697608948, -0.1780824214220047, -0.014893603511154652, 0.24289634823799133, 0.1995699107646942, 0.10557691007852554, -0.2276485562324524, -0.11896000057458878, -0.028768200427293777, 0.06456681340932846, -0.14846740663051605, -0.33372199535369873, 0.05015391856431961, 0.06634242087602615, -0.0955309346318245, -0.11866791546344757, -0.06878294795751572, -0.1493815779685974, 0.2118474543094635]], "bias": [0.07333090901374817, -0.12000935524702072, 0.19875214993953705, -0.2365986406803131]}